1.956024140409877532e+01
1.004024882763704829e+00
4.949973925842737765e-01
-2.610744635381201939e-01
3.246368908707933265e+00
4.890619320581489404e+00
3.547621380286584358e+00
5.417294405949321101e-01
2.001603811426149626e+00
-3.990858153456844359e+00
-3.853245986042244553e+00
3.186212785995192198e-01
-6.225351541782740694e-02
8.264201722245846649e-02
-2.209344715399975123e-01
5.468915371489467825e-01
8.112164625270526508e-02
2.353495739314359625e+00
7.105480930890558655e-01
8.424897987675470379e-01
1.015982618926933201e+00
5.281844344386013024e-01
-6.164439831238937434e-02
2.597221498165138143e-01
4.095352604428929011e-01
-1.293986914777029762e+00
-2.654814489612055795e+00
-4.169920306222029693e-01
8.706075037922815507e-02
1.477769108730685010e+00
2.078212153061984147e+00
5.054500296435452400e-01
4.877653110393623814e-01
-1.088441522666527161e+00
5.380829093987731238e-01
4.276675076205666004e-01
-2.936309401198136104e+00
-1.048274202265167876e+00
6.073300210159126022e-01
-1.758833044255171618e+00
-2.066613472655089989e+00
-6.405313498274169959e-01
-2.431357604411262530e-01
-9.200027016217886544e-01
-6.322149792778507527e-01
1.857471867054203696e-01
1.633492133959875137e-01
-1.593732624843607892e+00
-2.593105775963777671e-01
-4.697301891177167121e+00
-2.124612430174005695e+00
-5.674794744720037531e-01
8.601197996579955374e-02
-1.115019139020565042e+00
-1.888009805794519824e+00
-1.353453516716861982e+00
-1.989305048157030020e+00
-2.508699234302646630e+00
-1.644585384553198359e+00
-2.156884551787279225e+00
-3.640060351024694274e+00
1.383572193844819637e-02
6.069216482206581942e-01
-9.425280291916713349e-01
-2.954477169061168862e+00
-1.723320978101814616e+00
-1.473504515783110147e+00
-1.895797864120216669e+00
-1.862956821327842905e+00
-2.164109983323763586e+00
-3.640060351024694274e+00
5.848318129766073153e-02
1.309959050750841014e-01
-7.658203797506846211e-02
8.372832322412910866e-01
1.386160938273339971e+00
7.518890403898573771e-01
-1.547832439972773200e+00
-6.393968112335618459e-01
-4.697301891177167121e+00
-2.124612430174005695e+00
-2.532790152707852238e-01
-1.078879257443238426e+00
-1.089560070213479337e+00
-1.389861783604527945e+00
-4.550176513051628624e-01
-1.469996671956103729e+00
-3.295527985457386566e-01
9.480237377817536393e-01
-1.731270015749437841e+00
-2.251528384686952933e+00
-7.802107133235410830e-01
-1.951767232084844261e+00
6.047119654783087578e-02
-1.194088076357679329e+00
1.473343077569963522e-01
-1.148193041979505891e+00
-1.507782526575763171e+00
1.211840708675783418e+00
7.767040338989457116e-01
3.400263214810337886e-01
-1.299684959917316585e+00
-5.278901404837248457e-01
-1.676606552897459967e-01
5.041722496826045452e-01
1.395572626428682073e+00
1.752963886849004282e+00
2.731925037171083925e+00
1.836804988427079399e+00
-1.084518680635539051e-01
-1.587650213519974374e+00
-1.591450770590091768e+00
1.632226034889261712e-01
-1.426449279024349481e+00
1.508918491719282384e+00
5.637051127024225394e+00
3.038838665788655025e+00
2.478779627543878483e+00
3.350134983848898074e-01
-5.028112359005304732e+00
-3.953131615647512032e+00
-1.670797625712035828e+00
-1.191897055841119935e+00
-1.346478136570779416e+00
-7.151497803547605114e-01
2.104680084264928475e+00
1.678706550335787862e-01
-2.350027878290758210e+00
-1.702813709618192783e+00
-2.909145212217315812e+00
-3.702737571427245022e+00
-1.434805235819515135e+00
-1.670786397125294975e+00
-1.018177073649381287e-01
-4.279778185812582181e-01
-8.692023895568631864e-02
-2.901480377956851875e+00
-1.428865573228623065e+00
-3.001243849592749147e+00
3.827083406032841251e-01
-7.009946996921082585e-01
-1.649830079846057895e+00
-7.081231238438387976e-01
1.671787082536461577e+00
2.557549233088245000e+00
5.881259837467702756e-01
-8.092597303179198676e-01
-8.837222264350672596e-01
-3.897952085084568918e-01
4.228920006548676502e-01
6.552387551955723977e-01
-2.052102321151639153e+00
5.205244410487477186e-02
2.988663115588256480e-01
2.122230569133272571e+00
3.818904477200043002e-01
5.364082059946646830e-02
-1.022802260659712692e+00
-5.217387624108680289e-01
-1.208754465586702187e+00
-1.815946017025604098e+00
-1.379232303974392115e+00
8.580140196502614724e-01
4.391080320261261244e-02
-1.677559854394550465e+00
1.656688020807704775e-01
-8.499376602689275861e-01
-1.208684764845604054e+00
-1.078400457272900237e+00
-4.663627061584977973e+00
-2.133496292930907590e+00
-2.185005259239514608e+00
-2.125835146349225237e-03
9.032768091207483696e-01
5.972276538479797114e-01
-7.961347824926531258e-01
-1.402505463597301327e+00
-2.213640458308214765e+00
-2.852420905420376851e+00
-2.203623373313399636e+00
-3.640060351024694274e+00
-1.163199659151989973e+00
-1.200055743925943635e-01
2.577528685533248876e+00
2.147816129667829532e+00
1.855051392604245217e-02
-2.292870443578070461e+00
-2.407151747778663697e+00
-2.997472723211330070e+00
-2.203623373313399636e+00
-3.640060351024694274e+00
-3.562687737409626632e-01
2.132879967854885539e+00
6.026241600370518814e-01
-1.315968919677050319e+00
8.397160840751832778e-01
-2.247237894784423595e+00
-2.097231830854688006e+00
-5.146250633943529884e-01
-4.663627061584977973e+00
-2.133496292930907590e+00
-6.166851641261159589e-01
-5.037312607725210611e-01
-6.218161108650026997e-02
7.129218004238092599e-01
3.570522293181652151e-02
5.848311362884989206e-01
-1.108416971872907331e+00
-3.238912014133630279e-01
-9.544997192224239368e-01
-2.172130572058821762e+00
-7.492477461724353915e-01
-2.565694507305092964e-01
9.698554383258652933e-01
7.319913617040942899e-01
-3.462676899294863664e-01
-7.829759029671012893e-01
-7.410472471335828315e-01
-1.017889575288542181e+00
-4.721029476831307137e-01
2.535553982301816944e-01
-2.823517630396877864e-01
-1.357627319209497418e+00
6.493619354012776512e-03
-1.758780648690241977e+00
-2.531482902745899377e+00
-1.703172940983493255e+00
-2.100702210519711954e+00
-2.995714248917548783e+00
-8.049978957139785063e-01
4.508559314250701888e-01
2.903923955442505589e-02
-1.199031914559507639e+00
-1.264006068632821611e+00
2.026049491370078282e-01
-5.679954100011448855e-03
-1.193206590554355406e-01
-2.364989241227001937e+00
-2.098695977946983149e+00
-1.266282145724962005e+00
-3.823477075170730988e+00
-3.866473339333563186e-01
1.031624797843676694e-01
-1.404031645364545389e+00
1.540605952176315352e+00
2.687545322772396106e-01
-9.240521889537969824e-02
2.159239602567239569e+00
-1.500060943053728169e+00
-2.901838412637446907e-01
-3.358673430360723522e-01
-4.250923217837903612e-01
1.020228144835098716e+00
1.167148295395390223e+00
7.103043544618040661e-01
1.822357506856883691e-01
1.741547075803351552e+00
1.070914891186976331e-01
-9.896772026343177986e-01
-6.219413287898013509e-01
2.664898955443994466e-01
2.115594140555434599e-01
1.529791034744111544e-01
1.136021140720810063e+00
-1.257416202184509002e+00
-1.285648330856465016e+00
8.035196679649625473e-01
2.411554885906777912e+00
3.883017191773671661e-01
7.437458061240768137e-01
-2.025648010293649992e-02
-2.416813304242508842e+00
-2.142942528574239169e+00
-1.021380930026018596e+00
-2.909971279662289856e+00
-1.466258035853283292e+00
6.684012277609926445e-01
1.456143723678529289e+00
-2.129762038814560832e+00
-2.678985961679825056e+00
-3.640060351024694274e+00
-3.859013477065816877e-01
-1.743289740441663849e+00
-2.302590331834327986e-01
2.626672674118978867e-01
-6.440203858477382415e-01
-1.970849002293640906e-01
-2.501516594105911651e+00
-2.142942528574239169e+00
1.504502829273211884e+00
1.066247519166495072e+00
4.499749756451175142e-01
5.286157604507522034e-01
3.682096536871297399e-02
1.362410663774215491e+00
1.137848143146617863e+00
-1.257416202184509002e+00
3.159117252242656382e-01
-1.134348037090495032e+00
-9.055239444889484624e-01
7.980394925218223801e-01
1.621162474707624979e+00
1.056062927223073489e+00
2.724889572988493103e-01
1.457546630309243474e+00
-9.479337704288494371e-02
-1.876036555368568726e+00
9.071375760423685541e-01
2.257382609635442794e+00
5.253510731489487995e-01
7.339187680911152256e-01
2.114632495530008427e+00
-1.157120155723756483e+00
-4.637249180182580477e-01
-1.788404719738475146e+00
-1.679519495610425572e+00
-1.372908758158006837e-01
1.142190160810796939e+00
3.751495443806798225e-01
1.731524146797233321e+00
-9.905805136563653468e-01
-4.875632358208217831e-01
-9.542957579712871841e-01
-6.960051982258581571e-01
-2.205997014062889505e+00
1.081433254793160437e+00
2.398025350885660267e-01
6.814099152641041046e-01
1.487372153644284323e+00
-8.732899659581423446e-01
-9.693952273031402056e-01
-1.028049703788309177e+00
-1.643505178896492724e+00
4.300137956842909892e-01
-7.715501059376826676e-02
9.583581920652239905e-01
-1.269261277708871871e+00
1.129153045488173702e-03
-1.198201651806864776e+00
-1.692319165478479048e+00
-1.328539644643898621e+00
1.949298866864245694e+00
-9.488683520455244713e-02
-2.755478911649600793e+00
-1.912559989200225408e+00
2.098749352858768624e-01
3.023703273899379651e-01
6.493911563507644980e-01
1.985020761184930649e+00
7.139169851647118037e-01
-1.211795508994422788e+00
-3.434084417959847091e+00
-3.640060351024694274e+00
5.436090988686688164e-01
2.217749463129478904e-01
-7.738671502499809840e-01
-2.652784735971756014e-01
8.516455512395688654e-01
-3.871348519017090983e-01
-2.799972424983880881e+00
-1.912559989200225408e+00
-1.357366432354130681e-01
1.172632857520415905e+00
-2.003720511629296652e+00
-7.558140811199435261e-01
1.277249014978239394e+00
6.854204437139342909e-01
9.871374251047710935e-01
-1.269748835690581279e+00
-2.567177834087521204e-01
3.620103215835300259e-01
-5.762979220272451686e-01
-9.748802857061800164e-01
7.207088575791381624e-01
6.093602091346967953e-01
-2.270662372695788356e-01
1.673771649243730453e+00
3.533980571721166974e-01
-6.368918519549573443e-01
-8.103924257279588872e-01
4.069826704447503385e-01
2.891920656048874716e-01
7.300239822941178014e-01
2.102378989677148535e+00
-1.367563003803707877e+00
